{
  "model": "Qwen/Qwen2.5-7B-Instruct",
  "layer": 21,
  "C": 0.5,
  "n_readers": 70,
  "feat_names": [
    "drama_axis",
    "excess_sentimentality",
    "pathos_grief",
    "restraint",
    "shock",
    "sincerity",
    "spectacle",
    "stakes",
    "suspense"
  ],
  "n_ann": 208233,
  "base_rate": 0.18549893628771616,
  "models": {
    "M0": {
      "test_auroc": 0.5096384390526882,
      "test_logloss": 0.47894957661628723,
      "n_features": 1
    },
    "M1": {
      "test_auroc": 0.619105469404263,
      "test_logloss": 0.4649445712566376,
      "n_features": 71
    },
    "M2": {
      "test_auroc": 0.6220386689466799,
      "test_logloss": 0.4640860855579376,
      "n_features": 140
    },
    "M3": {
      "test_auroc": 0.6226563333350789,
      "test_logloss": 0.4640543460845947,
      "n_features": 700
    }
  },
  "delta_M3_M2_auroc_ci": [
    0.0003996363446636564,
    0.0006198317176182022,
    0.0008364548911084568
  ],
  "delta_M2_M1_auroc_ci": [
    0.0013541242427409117,
    0.003081251109123384,
    0.004749271643362842
  ],
  "delta_M1_M0_auroc_ci": [
    0.09901009259943655,
    0.10954409710483021,
    0.11867923552220172
  ],
  "null_delta_M3_M2_mean": 0.000632145120482741,
  "null_delta_M3_M2_std": 2.8597518896770567e-05,
  "real_delta_M3_M2": 0.0006176643883989419,
  "delta_M3_M2_z_vs_null": -0.5063455256570778,
  "reader_weight_matrix_singular_values": [
    0.6266366243362427,
    0.4067003130912781,
    0.29275915026664734,
    0.06044546887278557,
    0.02983507141470909,
    0.015553115867078304,
    0.013640227727591991,
    0.004459793213754892,
    0.001291663502342999
  ],
  "reader_space_participation_ratio": 3.246608018875122,
  "reader_space_evr_cumsum": [
    0.6052492260932922,
    0.8601973056793213,
    0.9923036098480225,
    0.9979351758956909,
    0.9993071556091309,
    0.9996799826622009,
    0.9999667406082153,
    0.9999973773956299,
    0.9999999403953552
  ],
  "reader_weight_matrix": [
    [
      -0.02211635746061802,
      -0.021340634673833847,
      -0.018132178112864494,
      -0.06695041060447693,
      -0.015836860984563828,
      -0.028613189235329628,
      -0.022538384422659874,
      0.027411051094532013,
      -0.025021331384778023
    ],
    [
      -0.0011162061709910631,
      0.0010177054209634662,
      -0.12608188390731812,
      -0.12516459822654724,
      0.009485666640102863,
      -0.01596447266638279,
      -0.0010857366723939776,
      -0.015415007248520851,
      -0.005045372527092695
    ],
    [
      0.007845332846045494,
      0.009803062304854393,
      -0.1027074009180069,
      -0.065956249833107,
      0.016805345192551613,
      -0.004649232607334852,
      0.008415255695581436,
      -0.008114386349916458,
      0.005167507100850344
    ],
    [
      -0.03182858228683472,
      -0.02436957322061062,
      -0.3865741193294525,
      -0.19616670906543732,
      -0.018130391836166382,
      -0.04029121249914169,
      -0.03025331161916256,
      0.06008076295256615,
      -0.05875178799033165
    ],
    [
      0.007083887699991465,
      0.00870996993035078,
      -0.09727044403553009,
      -0.07021801173686981,
      0.016267599537968636,
      -0.004758261609822512,
      0.010123254731297493,
      0.0008530141785740852,
      0.003671973245218396
    ],
    [
      0.00955165084451437,
      0.01063076313585043,
      -0.08163930475711823,
      -0.052774325013160706,
      0.01504881214350462,
      0.004741992335766554,
      0.009288438595831394,
      -0.0009275501361116767,
      0.006551136262714863
    ],
    [
      0.003063783748075366,
      0.0040016137063503265,
      -0.0669279396533966,
      -0.010651431046426296,
      0.001786877983249724,
      0.005760053172707558,
      0.0038532093167304993,
      -0.00578199652954936,
      -0.0005269829416647553
    ],
    [
      -0.0042126071639359,
      -0.0035172346979379654,
      -0.0026113279163837433,
      -0.052903905510902405,
      0.003415245097130537,
      -0.009286610409617424,
      -0.003931877203285694,
      0.015266137197613716,
      -0.002486342564225197
    ],
    [
      -0.004488898906856775,
      -0.003546475199982524,
      -0.029648467898368835,
      -0.0314839705824852,
      -0.0008389368304051459,
      -0.006588053423911333,
      -0.005087191238999367,
      0.010471688583493233,
      -0.006747114937752485
    ],
    [
      -0.004585841670632362,
      -0.0042966147884726524,
      0.01213059015572071,
      -0.03406841680407524,
      0.0005716229206882417,
      -0.007071357686072588,
      -0.004548420663923025,
      0.008328964933753014,
      -0.0021649664267897606
    ],
    [
      -0.03357308357954025,
      -0.03244112432003021,
      -0.04353617876768112,
      -0.08388450741767883,
      -0.028829559683799744,
      -0.04866541177034378,
      -0.030835947021842003,
      0.03583778813481331,
      -0.035600487142801285
    ],
    [
      -0.007565750740468502,
      -0.005921082571148872,
      -0.07896529138088226,
      -0.08012612909078598,
      0.004469410981982946,
      -0.010407404974102974,
      -0.0074356417171657085,
      0.020939534530043602,
      -0.009724507108330727
    ],
    [
      -0.02748788893222809,
      -0.02749168872833252,
      0.027726124972105026,
      -0.03369623422622681,
      -0.027482332661747932,
      -0.026726650074124336,
      -0.027564862743020058,
      0.02792253904044628,
      -0.02769085392355919
    ],
    [
      0.0014213388785719872,
      0.0017376728355884552,
      -0.005484122782945633,
      -0.016266895458102226,
      0.004278710577636957,
      0.00030604112544097006,
      0.0013834917917847633,
      0.001438713283278048,
      0.0019655090291053057
    ],
    [
      0.020737288519740105,
      0.022981392219662666,
      -0.07030609250068665,
      -0.12508021295070648,
      0.04880284518003464,
      0.006550324149429798,
      0.02208106406033039,
      0.009508496150374413,
      0.02480408363044262
    ],
    [
      0.01935430057346821,
      0.020198266953229904,
      -0.044978830963373184,
      -0.05292871221899986,
      0.030327562242746353,
      0.012467446736991405,
      0.017372215166687965,
      -0.018043920397758484,
      0.01963409036397934
    ],
    [
      -0.014343743212521076,
      -0.011678545735776424,
      -0.14766907691955566,
      -0.09012871235609055,
      -0.007819549180567265,
      -0.02862630970776081,
      -0.011545371264219284,
      0.0186106339097023,
      -0.02543274126946926
    ],
    [
      -0.0065890951082110405,
      -0.005135053768754005,
      -0.037379276007413864,
      -0.08463345468044281,
      0.0035311318933963776,
      -0.013574647717177868,
      -0.005509530659765005,
      0.02124522253870964,
      -0.007007166277617216
    ],
    [
      0.007625579833984375,
      0.008562148548662663,
      -0.006070978008210659,
      -0.09801454097032547,
      0.030640726909041405,
      0.00873469840735197,
      0.007370438426733017,
      0.01499561220407486,
      0.014752806164324284
    ],
    [
      0.015434511005878448,
      0.016584502533078194,
      -0.039958447217941284,
      -0.01275151688605547,
      0.02121315337717533,
      0.01826276257634163,
      0.015402322635054588,
      -0.0023805999662727118,
      0.010498397052288055
    ],
    [
      0.0035530105233192444,
      0.004276961553841829,
      -0.05531557276844978,
      -0.039734452962875366,
      0.007492010481655598,
      -0.001167576527222991,
      0.004096245858818293,
      0.00045097770635038614,
      -0.0007755639380775392
    ],
    [
      0.0372784361243248,
      0.038667090237140656,
      -0.1229361966252327,
      -0.02925693243741989,
      0.050890594720840454,
      0.02488349936902523,
      0.036412011831998825,
      -0.03991037607192993,
      0.033018216490745544
    ],
    [
      -0.018753841519355774,
      -0.017223965376615524,
      -0.04784644395112991,
      -0.06759301573038101,
      -0.010346796363592148,
      -0.023644588887691498,
      -0.017975958064198494,
      0.021098222583532333,
      -0.018428461626172066
    ],
    [
      -0.013864557258784771,
      -0.013778014108538628,
      0.005270966328680515,
      -0.021057572215795517,
      -0.01391205471009016,
      -0.014634172432124615,
      -0.013817882165312767,
      0.013551905751228333,
      -0.014218761585652828
    ],
    [
      -0.004505123943090439,
      -0.002438815776258707,
      -0.13571305572986603,
      -0.07219047844409943,
      0.00445362227037549,
      -0.012109569273889065,
      -0.003172541270032525,
      0.013292777352035046,
      -0.010038460604846478
    ],
    [
      0.02944977954030037,
      0.030336031690239906,
      -0.015441810712218285,
      -0.07662138342857361,
      0.05218084529042244,
      0.021385762840509415,
      0.02939750999212265,
      -0.016009874641895294,
      0.036194268614053726
    ],
    [
      -0.015103553421795368,
      -0.01457004714757204,
      -0.026592008769512177,
      -0.021816745400428772,
      -0.015016774646937847,
      -0.015753883868455887,
      -0.015194518491625786,
      0.009109621867537498,
      -0.01730552315711975
    ],
    [
      0.02112518809735775,
      0.02133612148463726,
      -0.025305094197392464,
      0.014635102823376656,
      0.022281929850578308,
      0.02121742069721222,
      0.02116462029516697,
      -0.01993390917778015,
      0.02096785046160221
    ],
    [
      0.03295183554291725,
      0.033591676503419876,
      -0.07401712238788605,
      0.020593680441379547,
      0.034137651324272156,
      0.032605916261672974,
      0.032943807542324066,
      -0.030635109171271324,
      0.032359544187784195
    ],
    [
      0.03529088571667671,
      0.03556795045733452,
      -0.039595529437065125,
      0.01940884254872799,
      0.038643840700387955,
      0.03569119796156883,
      0.034440379589796066,
      -0.032458238303661346,
      0.03448360785841942
    ],
    [
      0.00042842840775847435,
      0.0008003289112821221,
      -0.026937216520309448,
      -0.008937986567616463,
      0.001459382358007133,
      0.0013043375220149755,
      0.0005204034969210625,
      0.004265820141881704,
      8.495745714753866e-05
    ],
    [
      -0.000880582258105278,
      -0.00024332634347956628,
      -0.061747968196868896,
      -0.00038734887493774295,
      -0.003736318089067936,
      0.0036045697052031755,
      -0.0030110653024166822,
      -0.0044811563566327095,
      -0.005463662091642618
    ],
    [
      0.008854307234287262,
      0.009114612825214863,
      -0.026396462693810463,
      -0.03618602082133293,
      0.01603570207953453,
      0.00861444417387247,
      0.008688997477293015,
      0.003108269302174449,
      0.007463059853762388
    ],
    [
      0.015609104186296463,
      0.017696522176265717,
      -0.11257154494524002,
      -0.04310332611203194,
      0.01933939754962921,
      0.022956453263759613,
      0.015778524801135063,
      -0.005854330025613308,
      0.007904162630438805
    ],
    [
      -0.0028610602021217346,
      -0.001994533697143197,
      -0.017765672877430916,
      -0.05728079378604889,
      0.0032420088537037373,
      -0.008850137703120708,
      -0.002153114415705204,
      0.008386572822928429,
      -0.0016089481068775058
    ],
    [
      0.004755152389407158,
      0.009038384072482586,
      -0.21654295921325684,
      -0.18552187085151672,
      0.025736885145306587,
      -0.008928663097321987,
      0.00858987309038639,
      0.03002660721540451,
      -0.013109388761222363
    ],
    [
      -0.01512979343533516,
      -0.013833264820277691,
      -0.05889364704489708,
      -0.03312245011329651,
      -0.013877631165087223,
      -0.021746668964624405,
      -0.013441693037748337,
      0.01895288936793804,
      -0.019184686243534088
    ],
    [
      0.016069909557700157,
      0.017675073817372322,
      -0.06892509758472443,
      -0.06044670566916466,
      0.02602067030966282,
      0.008871692232787609,
      0.017008047550916672,
      -0.006054829806089401,
      0.014957007952034473
    ],
    [
      -0.005975385196506977,
      -0.004508642945438623,
      -0.023698212578892708,
      -0.09400299936532974,
      0.007644210010766983,
      -0.00669923285022378,
      -0.006410524714738131,
      0.009009147994220257,
      -0.003393400926142931
    ],
    [
      -0.01181252021342516,
      -0.010789531283080578,
      -0.051364921033382416,
      -0.03213343024253845,
      -0.009611951187252998,
      -0.013670309446752071,
      -0.011276490986347198,
      0.012348013930022717,
      -0.01544511504471302
    ],
    [
      0.018180904909968376,
      0.01919580064713955,
      -0.06128399819135666,
      -0.06143048033118248,
      0.03255215287208557,
      0.012856375426054,
      0.018011117354035378,
      -0.012949788011610508,
      0.01795029267668724
    ],
    [
      0.015573953278362751,
      0.015586238354444504,
      -0.018607262521982193,
      0.012359047308564186,
      0.016055140644311905,
      0.01534740999341011,
      0.015782982110977173,
      -0.014773931354284286,
      0.015801068395376205
    ],
    [
      0.011145783588290215,
      0.012872266583144665,
      -0.04312807321548462,
      -0.06652248650789261,
      0.026052555069327354,
      0.010472296737134457,
      0.011073464527726173,
      0.004624833352863789,
      0.013137992471456528
    ],
    [
      -0.00758236413821578,
      -0.0076062544248998165,
      0.010627923533320427,
      -0.01751825585961342,
      -0.006621818523854017,
      -0.010670682415366173,
      -0.007542170584201813,
      0.0088732885196805,
      -0.007249312940984964
    ],
    [
      0.035399194806814194,
      0.036827217787504196,
      -0.028757369145751,
      -0.10937908291816711,
      0.06794854998588562,
      0.023709557950496674,
      0.03437906131148338,
      -0.01727203093469143,
      0.03812010958790779
    ],
    [
      -0.014139300212264061,
      -0.013161247596144676,
      -0.024397270753979683,
      -0.043241310864686966,
      -0.008424305357038975,
      -0.018185211345553398,
      -0.014655129052698612,
      0.018097329884767532,
      -0.01722259819507599
    ],
    [
      0.014449306763708591,
      0.01623830385506153,
      -0.061139777302742004,
      -0.07699385285377502,
      0.03182443976402283,
      0.008113550022244453,
      0.015785111114382744,
      -8.644766785437241e-05,
      0.016429074108600616
    ],
    [
      0.02976536937057972,
      0.031949691474437714,
      -0.06653177738189697,
      -0.08920872956514359,
      0.047078054398298264,
      0.03369906544685364,
      0.0288100503385067,
      -0.01526656188070774,
      0.02552342228591442
    ],
    [
      0.0028725562151521444,
      0.003039815928786993,
      -0.02654263935983181,
      -0.013129043392837048,
      0.00407010642811656,
      0.002771275117993355,
      0.0031981314532458782,
      -0.003218189114704728,
      0.0009328320156782866
    ],
    [
      0.018072178587317467,
      0.019301442429423332,
      -0.07740338891744614,
      -0.04100105166435242,
      0.026036333292722702,
      0.01150334533303976,
      0.016332551836967468,
      -0.016543816775083542,
      0.012718885205686092
    ],
    [
      -0.011631508357822895,
      -0.011021320708096027,
      0.04617973417043686,
      -0.08544506877660751,
      0.0044059534557163715,
      -0.017405910417437553,
      -0.011179052293300629,
      0.03064476139843464,
      -0.006795830093324184
    ],
    [
      -0.011656592600047588,
      -0.009313738904893398,
      -0.1207834854722023,
      -0.09296924620866776,
      -8.865301788318902e-05,
      -0.028539448976516724,
      -0.010912018828094006,
      0.012526141479611397,
      -0.01818462647497654
    ],
    [
      -0.030440961942076683,
      -0.030439654365181923,
      0.02862209640443325,
      -0.03562280908226967,
      -0.03067725896835327,
      -0.030890312045812607,
      -0.030640218406915665,
      0.02869751863181591,
      -0.030733322724699974
    ],
    [
      0.039962805807590485,
      0.03999580815434456,
      -0.046053145080804825,
      0.0349818579852581,
      0.04009108617901802,
      0.04114839807152748,
      0.039867471903562546,
      -0.04008755460381508,
      0.0399734303355217
    ],
    [
      -0.025983117520809174,
      -0.02334589883685112,
      -0.15757210552692413,
      -0.09367402642965317,
      -0.02561023086309433,
      -0.039857327938079834,
      -0.02244427427649498,
      0.030685165897011757,
      -0.037912994623184204
    ],
    [
      -0.006786327809095383,
      -0.002061416395008564,
      -0.2633708417415619,
      -0.15518656373023987,
      0.008806326426565647,
      -0.019824018701910973,
      -0.005605204030871391,
      0.028659021481871605,
      -0.030819090083241463
    ],
    [
      0.010579904541373253,
      0.012311537750065327,
      -0.09969308972358704,
      -0.17013230919837952,
      0.041032690554857254,
      -0.01696523278951645,
      0.011281638406217098,
      -0.01015330571681261,
      0.020031798630952835
    ],
    [
      0.003296057227998972,
      0.0040017226710915565,
      -0.023965690284967422,
      -0.024618439376354218,
      0.00837096106261015,
      -0.0005019598756916821,
      0.004030304029583931,
      0.0019415789283812046,
      0.003487331559881568
    ],
    [
      -0.015674030408263206,
      -0.014228579588234425,
      -0.018942588940262794,
      -0.07950977981090546,
      -0.00783802941441536,
      -0.021479353308677673,
      -0.013231963850557804,
      0.03439629450440407,
      -0.017521770671010017
    ],
    [
      0.03097507730126381,
      0.030367093160748482,
      0.02739369496703148,
      -0.024546552449464798,
      0.04287486523389816,
      0.02968739904463291,
      0.030240021646022797,
      -0.021003318950533867,
      0.03728818893432617
    ],
    [
      0.026370758190751076,
      0.028215838596224785,
      -0.050349682569503784,
      -0.12119168788194656,
      0.04851517081260681,
      0.016772251576185226,
      0.024539414793252945,
      -0.007327901665121317,
      0.026173239573836327
    ],
    [
      -0.0025794554967433214,
      -0.0006758258678019047,
      -0.11516087502241135,
      -0.014824333600699902,
      -0.0002755726454779506,
      -0.0073989941738545895,
      -0.0011013793991878629,
      0.0015380172990262508,
      -0.00894465297460556
    ],
    [
      0.012956667691469193,
      0.013248247094452381,
      -0.01960652694106102,
      -0.012947771698236465,
      0.016862783581018448,
      0.011561805382370949,
      0.013154790736734867,
      -0.005847540218383074,
      0.012317844666540623
    ],
    [
      0.008570307865738869,
      0.009016911499202251,
      -0.023206068202853203,
      -0.026530863717198372,
      0.010771219618618488,
      0.0077058556489646435,
      0.007825504057109356,
      -0.006033619865775108,
      0.007027830462902784
    ],
    [
      0.016851047053933144,
      0.017086436972022057,
      -0.03807781636714935,
      0.0112694026902318,
      0.015151968225836754,
      0.01691339537501335,
      0.016821907833218575,
      -0.020263252779841423,
      0.015599014237523079
    ],
    [
      0.02055947482585907,
      0.021462922915816307,
      -0.04537498578429222,
      -0.028944972902536392,
      0.02565601095557213,
      0.016873471438884735,
      0.02042633295059204,
      -0.015804875642061234,
      0.01900658570230007
    ],
    [
      -0.021121921017766,
      -0.02074095606803894,
      -0.0015052444068714976,
      -0.03666326031088829,
      -0.019808486104011536,
      -0.02085626870393753,
      -0.020430076867341995,
      0.022364554926753044,
      -0.02209501527249813
    ],
    [
      0.001907024416141212,
      0.0030347274150699377,
      -0.06474359333515167,
      -0.04540793597698212,
      0.004293056204915047,
      -0.008574641309678555,
      0.0029113751370459795,
      -0.007587251719087362,
      -0.00038548605516552925
    ],
    [
      -0.024087004363536835,
      -0.023853495717048645,
      -0.015242651104927063,
      -0.038801681250333786,
      -0.025235850363969803,
      -0.0298371072858572,
      -0.023879457265138626,
      0.020519450306892395,
      -0.02703770063817501
    ],
    [
      0.02351663075387478,
      0.024799035862088203,
      -0.030522270128130913,
      -0.09481249004602432,
      0.0399305522441864,
      0.010821017436683178,
      0.02289103902876377,
      -0.007288758642971516,
      0.026421574875712395
    ]
  ]
}